<?xml version="1.0"?>
<opencv_storage>
<!-- Created using Computer Vision System Toolbox(tm) for MATLAB(R) -->
<!-- Version 8.1.0.604 (R2013a) -->
<!-- Compatible with OpenCV 2.4 -->
<cascade>
  <stageType>BOOST</stageType>
  <featureType>HAAR</featureType>
  <height>40</height>
  <width>40</width>
  <stageParams>
    <boostType>GAB</boostType>
    <minHitRate>9.9501997232437134e-01</minHitRate>
    <maxFalseAlarm>5.0000000000000000e-01</maxFalseAlarm>
    <weightTrimRate>9.4999999999999996e-01</weightTrimRate>
    <maxDepth>1</maxDepth>
    <maxWeakCount>100</maxWeakCount></stageParams>
  <featureParams>
    <maxCatCount>0</maxCatCount>
    <featSize>1</featSize>
    <mode>BASIC</mode></featureParams>
  <stageNum>20</stageNum>
  <stages>
    <!-- stage 0 -->
    <_>
      <maxWeakCount>3</maxWeakCount>
      <stageThreshold>-1.0714231729507446e+00</stageThreshold>
      <weakClassifiers>
        <_>
          <internalNodes>
            0 -1 14 -1.5805862843990326e-02</internalNodes>
          <leafValues>
            9.1111111640930176e-01 -8.1196582317352295e-01</leafValues></_>
        <_>
          <internalNodes>
            0 -1 11 -1.1485293507575989e-02</internalNodes>
          <leafValues>
            5.4666262865066528e-01 -7.5745689868927002e-01</leafValues></_>
        <_>
          <internalNodes>
            0 -1 20 3.8569257594645023e-04</internalNodes>
          <leafValues>
            4.9799954891204834e-01 -9.6589237451553345e-01</leafValues></_></weakClassifiers></_>
    <!-- stage 1 -->
    <_>
      <maxWeakCount>2</maxWeakCount>
      <stageThreshold>-4.7100892663002014e-01</stageThreshold>
      <weakClassifiers>
        <_>
          <internalNodes>
            0 -1 4 -3.5019665956497192e-02</internalNodes>
          <leafValues>
            8.2978725433349609e-01 -8.0869567394256592e-01</leafValues></_>
        <_>
          <internalNodes>
            0 -1 7 -7.3596020229160786e-04</internalNodes>
          <leafValues>
            3.3768671751022339e-01 -1.</leafValues></_></weakClassifiers></_>
    <!-- stage 2 -->
    <_>
      <maxWeakCount>2</maxWeakCount>
      <stageThreshold>-2.5956767797470093e-01</stageThreshold>
      <weakClassifiers>
        <_>
          <internalNodes>
            0 -1 45 2.0858116447925568e-02</internalNodes>
          <leafValues>
            -7.6470589637756348e-01 8.6046510934829712e-01</leafValues></_>
        <_>
          <internalNodes>
            0 -1 26 -4.0759972762316465e-04</internalNodes>
          <leafValues>
            -9.2087453603744507e-01 5.0513821840286255e-01</leafValues></_></weakClassifiers></_>
    <!-- stage 3 -->
    <_>
      <maxWeakCount>4</maxWeakCount>
      <stageThreshold>-6.3304764032363892e-01</stageThreshold>
      <weakClassifiers>
        <_>
          <internalNodes>
            0 -1 54 4.3338993564248085e-03</internalNodes>
          <leafValues>
            -7.2357726097106934e-01 8.9743590354919434e-01</leafValues></_>
        <_>
          <internalNodes>
            0 -1 29 1.6261899145320058e-04</internalNodes>
          <leafValues>
            3.1000107526779175e-01 -9.7330182790756226e-01</leafValues></_>
        <_>
          <internalNodes>
            0 -1 12 -2.1131310611963272e-02</internalNodes>
          <leafValues>
            4.9401184916496277e-01 -6.9343781471252441e-01</leafValues></_>
        <_>
          <internalNodes>
            0 -1 30 1.2498975265771151e-03</internalNodes>
          <leafValues>
            4.7396636009216309e-01 -9.8258572816848755e-01</leafValues></_></weakClassifiers></_>
    <!-- stage 4 -->
    <_>
      <maxWeakCount>3</maxWeakCount>
      <stageThreshold>-5.7498079538345337e-01</stageThreshold>
      <weakClassifiers>
        <_>
          <internalNodes>
            0 -1 55 3.6498571280390024e-03</internalNodes>
          <leafValues>
            -7.2131145000457764e-01 8.5000002384185791e-01</leafValues></_>
        <_>
          <internalNodes>
            0 -1 2 -4.0389387868344784e-04</internalNodes>
          <leafValues>
            8.1886231899261475e-01 -5.3372406959533691e-01</leafValues></_>
        <_>
          <internalNodes>
            0 -1 47 -4.5441370457410812e-03</internalNodes>
          <leafValues>
            7.4479734897613525e-01 -6.7253160476684570e-01</leafValues></_></weakClassifiers></_>
    <!-- stage 5 -->
    <_>
      <maxWeakCount>3</maxWeakCount>
      <stageThreshold>-6.7744767665863037e-01</stageThreshold>
      <weakClassifiers>
        <_>
          <internalNodes>
            0 -1 49 1.2326080352067947e-02</internalNodes>
          <leafValues>
            -7.5000000000000000e-01 6.0000002384185791e-01</leafValues></_>
        <_>
          <internalNodes>
            0 -1 32 1.0841484181582928e-03</internalNodes>
          <leafValues>
            -6.1787497997283936e-01 6.8587195873260498e-01</leafValues></_>
        <_>
          <internalNodes>
            0 -1 23 -3.2969987951219082e-03</internalNodes>
          <leafValues>
            7.8873801231384277e-01 -6.1331963539123535e-01</leafValues></_></weakClassifiers></_>
    <!-- stage 6 -->
    <_>
      <maxWeakCount>3</maxWeakCount>
      <stageThreshold>-9.4698995351791382e-01</stageThreshold>
      <weakClassifiers>
        <_>
          <internalNodes>
            0 -1 53 -3.5454297903925180e-03</internalNodes>
          <leafValues>
            5.5555558204650879e-01 -7.7777779102325439e-01</leafValues></_>
        <_>
          <internalNodes>
            0 -1 9 -3.9300750941038132e-02</internalNodes>
          <leafValues>
            5.3431266546249390e-01 -6.8229240179061890e-01</leafValues></_>
        <_>
          <internalNodes>
            0 -1 24 -1.0103597305715084e-03</internalNodes>
          <leafValues>
            5.1308023929595947e-01 -7.8710412979125977e-01</leafValues></_></weakClassifiers></_>
    <!-- stage 7 -->
    <_>
      <maxWeakCount>4</maxWeakCount>
      <stageThreshold>-3.1408458948135376e-01</stageThreshold>
      <weakClassifiers>
        <_>
          <internalNodes>
            0 -1 3 -1.0772483423352242e-02</internalNodes>
          <leafValues>
            7.3684209585189819e-01 -6.6129034757614136e-01</leafValues></_>
        <_>
          <internalNodes>
            0 -1 6 -7.5896307826042175e-02</internalNodes>
          <leafValues>
            7.4371236562728882e-01 -5.2901840209960938e-01</leafValues></_>
        <_>
          <internalNodes>
            0 -1 27 -5.4442189633846283e-02</internalNodes>
          <leafValues>
            5.0667345523834229e-01 -7.3481822013854980e-01</leafValues></_>
        <_>
          <internalNodes>
            0 -1 40 1.4527049643220380e-05</internalNodes>
          <leafValues>
            -9.0318006277084351e-01 3.9453572034835815e-01</leafValues></_></weakClassifiers></_>
    <!-- stage 8 -->
    <_>
      <maxWeakCount>4</maxWeakCount>
      <stageThreshold>-5.0520032644271851e-01</stageThreshold>
      <weakClassifiers>
        <_>
          <internalNodes>
            0 -1 37 2.1671270951628685e-02</internalNodes>
          <leafValues>
            -8.1250000000000000e-01 3.6363637447357178e-01</leafValues></_>
        <_>
          <internalNodes>
            0 -1 8 -2.9620112851262093e-02</internalNodes>
          <leafValues>
            8.7397003173828125e-01 -4.5406705141067505e-01</leafValues></_>
        <_>
          <internalNodes>
            0 -1 36 1.4430372975766659e-03</internalNodes>
          <leafValues>
            4.5255735516548157e-01 -8.0114734172821045e-01</leafValues></_>
        <_>
          <internalNodes>
            0 -1 13 3.5971403121948242e-04</internalNodes>
          <leafValues>
            3.8637766242027283e-01 -8.4051603078842163e-01</leafValues></_></weakClassifiers></_>
    <!-- stage 9 -->
    <_>
      <maxWeakCount>2</maxWeakCount>
      <stageThreshold>-2.8093001246452332e-01</stageThreshold>
      <weakClassifiers>
        <_>
          <internalNodes>
            0 -1 0 -5.9561557136476040e-03</internalNodes>
          <leafValues>
            8.7096774578094482e-01 -6.1832058429718018e-01</leafValues></_>
        <_>
          <internalNodes>
            0 -1 5 2.4891941575333476e-04</internalNodes>
          <leafValues>
            3.3739060163497925e-01 -9.7502863407135010e-01</leafValues></_></weakClassifiers></_>
    <!-- stage 10 -->
    <_>
      <maxWeakCount>4</maxWeakCount>
      <stageThreshold>-3.1816115975379944e-01</stageThreshold>
      <weakClassifiers>
        <_>
          <internalNodes>
            0 -1 21 -2.1359540522098541e-02</internalNodes>
          <leafValues>
            7.9310345649719238e-01 -5.7894736528396606e-01</leafValues></_>
        <_>
          <internalNodes>
            0 -1 44 2.9937725048512220e-04</internalNodes>
          <leafValues>
            3.2873052358627319e-01 -9.0224254131317139e-01</leafValues></_>
        <_>
          <internalNodes>
            0 -1 10 -3.9913796354085207e-04</internalNodes>
          <leafValues>
            4.5800179243087769e-01 -6.4708274602890015e-01</leafValues></_>
        <_>
          <internalNodes>
            0 -1 35 -2.3460388547391631e-05</internalNodes>
          <leafValues>
            6.9809007644653320e-01 -5.2594608068466187e-01</leafValues></_></weakClassifiers></_>
    <!-- stage 11 -->
    <_>
      <maxWeakCount>4</maxWeakCount>
      <stageThreshold>-4.5182979106903076e-01</stageThreshold>
      <weakClassifiers>
        <_>
          <internalNodes>
            0 -1 52 1.5031998045742512e-02</internalNodes>
          <leafValues>
            -6.9911503791809082e-01 5.1020407676696777e-01</leafValues></_>
        <_>
          <internalNodes>
            0 -1 33 -5.2543080528266728e-05</internalNodes>
          <leafValues>
            4.5048245787620544e-01 -7.3775565624237061e-01</leafValues></_>
        <_>
          <internalNodes>
            0 -1 18 -4.8324163071811199e-04</internalNodes>
          <leafValues>
            -8.7608623504638672e-01 3.3987650275230408e-01</leafValues></_>
        <_>
          <internalNodes>
            0 -1 34 -7.6151976827532053e-05</internalNodes>
          <leafValues>
            6.8163037300109863e-01 -5.4307371377944946e-01</leafValues></_></weakClassifiers></_>
    <!-- stage 12 -->
    <_>
      <maxWeakCount>4</maxWeakCount>
      <stageThreshold>-6.3945055007934570e-01</stageThreshold>
      <weakClassifiers>
        <_>
          <internalNodes>
            0 -1 1 -4.9563902430236340e-03</internalNodes>
          <leafValues>
            7.0588237047195435e-01 -5.6896549463272095e-01</leafValues></_>
        <_>
          <internalNodes>
            0 -1 50 -8.5707652033306658e-05</internalNodes>
          <leafValues>
            -8.4203076362609863e-01 3.9811030030250549e-01</leafValues></_>
        <_>
          <internalNodes>
            0 -1 41 3.6302712396718562e-04</internalNodes>
          <leafValues>
            3.7171447277069092e-01 -8.3249366283416748e-01</leafValues></_>
        <_>
          <internalNodes>
            0 -1 22 3.3055254607461393e-04</internalNodes>
          <leafValues>
            3.9983120560646057e-01 -8.2008540630340576e-01</leafValues></_></weakClassifiers></_>
    <!-- stage 13 -->
    <_>
      <maxWeakCount>4</maxWeakCount>
      <stageThreshold>-2.7613174915313721e-01</stageThreshold>
      <weakClassifiers>
        <_>
          <internalNodes>
            0 -1 31 -8.6705021560192108e-02</internalNodes>
          <leafValues>
            8.1250000000000000e-01 -4.5054945349693298e-01</leafValues></_>
        <_>
          <internalNodes>
            0 -1 28 -7.8956969082355499e-04</internalNodes>
          <leafValues>
            -8.7306398153305054e-01 4.4747439026832581e-01</leafValues></_>
        <_>
          <internalNodes>
            0 -1 15 -1.2449025176465511e-02</internalNodes>
          <leafValues>
            5.8507591485977173e-01 -5.9606707096099854e-01</leafValues></_>
        <_>
          <internalNodes>
            0 -1 43 -1.1215466074645519e-03</internalNodes>
          <leafValues>
            -7.4485284090042114e-01 4.6240577101707458e-01</leafValues></_></weakClassifiers></_>
    <!-- stage 14 -->
    <_>
      <maxWeakCount>2</maxWeakCount>
      <stageThreshold>5.2349593490362167e-02</stageThreshold>
      <weakClassifiers>
        <_>
          <internalNodes>
            0 -1 38 -7.5696792919188738e-04</internalNodes>
          <leafValues>
            8.5000002384185791e-01 -3.3333334326744080e-01</leafValues></_>
        <_>
          <internalNodes>
            0 -1 39 -2.4131027748808265e-04</internalNodes>
          <leafValues>
            -7.9765039682388306e-01 6.2266021966934204e-01</leafValues></_></weakClassifiers></_>
    <!-- stage 15 -->
    <_>
      <maxWeakCount>1</maxWeakCount>
      <stageThreshold>7.1428573131561279e-01</stageThreshold>
      <weakClassifiers>
        <_>
          <internalNodes>
            0 -1 46 6.3354609301313758e-04</internalNodes>
          <leafValues>
            7.1428573131561279e-01 -1.</leafValues></_></weakClassifiers></_>
    <!-- stage 16 -->
    <_>
      <maxWeakCount>2</maxWeakCount>
      <stageThreshold>-1.2309193843975663e-03</stageThreshold>
      <weakClassifiers>
        <_>
          <internalNodes>
            0 -1 51 3.3433962380513549e-04</internalNodes>
          <leafValues>
            -5.4545456171035767e-01 8.8461536169052124e-01</leafValues></_>
        <_>
          <internalNodes>
            0 -1 17 3.9654543797951192e-05</internalNodes>
          <leafValues>
            7.7927458286285400e-01 -8.8584631681442261e-01</leafValues></_></weakClassifiers></_>
    <!-- stage 17 -->
    <_>
      <maxWeakCount>1</maxWeakCount>
      <stageThreshold>8.3050847053527832e-01</stageThreshold>
      <weakClassifiers>
        <_>
          <internalNodes>
            0 -1 25 -2.1093972027301788e-03</internalNodes>
          <leafValues>
            -1. 8.3050847053527832e-01</leafValues></_></weakClassifiers></_>
    <!-- stage 18 -->
    <_>
      <maxWeakCount>3</maxWeakCount>
      <stageThreshold>8.2469290494918823e-01</stageThreshold>
      <weakClassifiers>
        <_>
          <internalNodes>
            0 -1 42 2.4307658895850182e-04</internalNodes>
          <leafValues>
            8.5714286565780640e-01 -6.6666668653488159e-01</leafValues></_>
        <_>
          <internalNodes>
            0 -1 19 1.7884071916341782e-02</internalNodes>
          <leafValues>
            8.1452494859695435e-01 -8.6781209707260132e-01</leafValues></_>
        <_>
          <internalNodes>
            0 -1 16 1.8997926963493228e-04</internalNodes>
          <leafValues>
            8.3536213636398315e-01 -7.9275661706924438e-01</leafValues></_></weakClassifiers></_>
    <!-- stage 19 -->
    <_>
      <maxWeakCount>1</maxWeakCount>
      <stageThreshold>8.3050847053527832e-01</stageThreshold>
      <weakClassifiers>
        <_>
          <internalNodes>
            0 -1 48 -3.6917263059876859e-04</internalNodes>
          <leafValues>
            -1. 8.3050847053527832e-01</leafValues></_></weakClassifiers></_></stages>
  <features>
    <_>
      <rects>
        <_>
          0 6 2 22 -1.</_>
        <_>
          1 6 1 22 2.</_></rects>
      <tilted>0</tilted></_>
    <_>
      <rects>
        <_>
          0 15 2 14 -1.</_>
        <_>
          1 15 1 14 2.</_></rects>
      <tilted>0</tilted></_>
    <_>
      <rects>
        <_>
          0 16 3 3 -1.</_>
        <_>
          1 16 1 3 3.</_></rects>
      <tilted>0</tilted></_>
    <_>
      <rects>
        <_>
          0 16 4 14 -1.</_>
        <_>
          2 16 2 14 2.</_></rects>
      <tilted>0</tilted></_>
    <_>
      <rects>
        <_>
          0 23 14 17 -1.</_>
        <_>
          7 23 7 17 2.</_></rects>
      <tilted>0</tilted></_>
    <_>
      <rects>
        <_>
          0 32 2 8 -1.</_>
        <_>
          0 32 1 4 2.</_>
        <_>
          1 36 1 4 2.</_></rects>
      <tilted>0</tilted></_>
    <_>
      <rects>
        <_>
          0 32 30 8 -1.</_>
        <_>
          15 32 15 8 2.</_></rects>
      <tilted>0</tilted></_>
    <_>
      <rects>
        <_>
          0 39 18 1 -1.</_>
        <_>
          9 39 9 1 2.</_></rects>
      <tilted>0</tilted></_>
    <_>
      <rects>
        <_>
          1 1 5 18 -1.</_>
        <_>
          1 10 5 9 2.</_></rects>
      <tilted>0</tilted></_>
    <_>
      <rects>
        <_>
          1 5 17 24 -1.</_>
        <_>
          1 17 17 12 2.</_></rects>
      <tilted>0</tilted></_>
    <_>
      <rects>
        <_>
          1 6 2 28 -1.</_>
        <_>
          1 6 1 14 2.</_>
        <_>
          2 20 1 14 2.</_></rects>
      <tilted>0</tilted></_>
    <_>
      <rects>
        <_>
          1 12 10 26 -1.</_>
        <_>
          1 12 5 13 2.</_>
        <_>
          6 25 5 13 2.</_></rects>
      <tilted>0</tilted></_>
    <_>
      <rects>
        <_>
          1 15 10 24 -1.</_>
        <_>
          1 15 5 12 2.</_>
        <_>
          6 27 5 12 2.</_></rects>
      <tilted>0</tilted></_>
    <_>
      <rects>
        <_>
          1 26 11 9 -1.</_>
        <_>
          1 29 11 3 3.</_></rects>
      <tilted>0</tilted></_>
    <_>
      <rects>
        <_>
          1 39 39 1 -1.</_>
        <_>
          14 39 13 1 3.</_></rects>
      <tilted>0</tilted></_>
    <_>
      <rects>
        <_>
          2 10 6 30 -1.</_>
        <_>
          2 10 3 15 2.</_>
        <_>
          5 25 3 15 2.</_></rects>
      <tilted>0</tilted></_>
    <_>
      <rects>
        <_>
          2 28 28 2 -1.</_>
        <_>
          2 28 14 1 2.</_>
        <_>
          16 29 14 1 2.</_></rects>
      <tilted>0</tilted></_>
    <_>
      <rects>
        <_>
          3 0 2 2 -1.</_>
        <_>
          3 0 1 1 2.</_>
        <_>
          4 1 1 1 2.</_></rects>
      <tilted>0</tilted></_>
    <_>
      <rects>
        <_>
          3 0 8 1 -1.</_>
        <_>
          7 0 4 1 2.</_></rects>
      <tilted>0</tilted></_>
    <_>
      <rects>
        <_>
          4 13 16 16 -1.</_>
        <_>
          4 13 8 8 2.</_>
        <_>
          12 21 8 8 2.</_></rects>
      <tilted>0</tilted></_>
    <_>
      <rects>
        <_>
          4 28 8 3 -1.</_>
        <_>
          4 29 8 1 3.</_></rects>
      <tilted>0</tilted></_>
    <_>
      <rects>
        <_>
          5 0 7 10 -1.</_>
        <_>
          5 5 7 5 2.</_></rects>
      <tilted>0</tilted></_>
    <_>
      <rects>
        <_>
          5 30 2 6 -1.</_>
        <_>
          5 32 2 2 3.</_></rects>
      <tilted>0</tilted></_>
    <_>
      <rects>
        <_>
          5 32 4 8 -1.</_>
        <_>
          7 32 2 8 2.</_></rects>
      <tilted>0</tilted></_>
    <_>
      <rects>
        <_>
          5 36 14 4 -1.</_>
        <_>
          5 36 7 2 2.</_>
        <_>
          12 38 7 2 2.</_></rects>
      <tilted>0</tilted></_>
    <_>
      <rects>
        <_>
          6 21 3 19 -1.</_>
        <_>
          7 21 1 19 3.</_></rects>
      <tilted>0</tilted></_>
    <_>
      <rects>
        <_>
          6 28 6 3 -1.</_>
        <_>
          6 29 6 1 3.</_></rects>
      <tilted>0</tilted></_>
    <_>
      <rects>
        <_>
          8 4 13 36 -1.</_>
        <_>
          8 22 13 18 2.</_></rects>
      <tilted>0</tilted></_>
    <_>
      <rects>
        <_>
          18 24 4 10 -1.</_>
        <_>
          18 24 2 5 2.</_>
        <_>
          20 29 2 5 2.</_></rects>
      <tilted>0</tilted></_>
    <_>
      <rects>
        <_>
          18 25 6 2 -1.</_>
        <_>
          18 25 3 1 2.</_>
        <_>
          21 26 3 1 2.</_></rects>
      <tilted>0</tilted></_>
    <_>
      <rects>
        <_>
          18 26 6 8 -1.</_>
        <_>
          18 26 3 4 2.</_>
        <_>
          21 30 3 4 2.</_></rects>
      <tilted>0</tilted></_>
    <_>
      <rects>
        <_>
          20 0 17 18 -1.</_>
        <_>
          20 9 17 9 2.</_></rects>
      <tilted>0</tilted></_>
    <_>
      <rects>
        <_>
          21 38 14 2 -1.</_>
        <_>
          21 38 7 1 2.</_>
        <_>
          28 39 7 1 2.</_></rects>
      <tilted>0</tilted></_>
    <_>
      <rects>
        <_>
          22 38 2 2 -1.</_>
        <_>
          22 39 2 1 2.</_></rects>
      <tilted>0</tilted></_>
    <_>
      <rects>
        <_>
          23 1 4 2 -1.</_>
        <_>
          23 1 2 1 2.</_>
        <_>
          25 2 2 1 2.</_></rects>
      <tilted>0</tilted></_>
    <_>
      <rects>
        <_>
          24 3 2 1 -1.</_>
        <_>
          25 3 1 1 2.</_></rects>
      <tilted>0</tilted></_>
    <_>
      <rects>
        <_>
          26 11 14 24 -1.</_>
        <_>
          26 19 14 8 3.</_></rects>
      <tilted>0</tilted></_>
    <_>
      <rects>
        <_>
          26 16 12 24 -1.</_>
        <_>
          26 16 6 12 2.</_>
        <_>
          32 28 6 12 2.</_></rects>
      <tilted>0</tilted></_>
    <_>
      <rects>
        <_>
          27 3 6 6 -1.</_>
        <_>
          27 3 3 3 2.</_>
        <_>
          30 6 3 3 2.</_></rects>
      <tilted>0</tilted></_>
    <_>
      <rects>
        <_>
          28 38 12 1 -1.</_>
        <_>
          32 38 4 1 3.</_></rects>
      <tilted>0</tilted></_>
    <_>
      <rects>
        <_>
          29 39 4 1 -1.</_>
        <_>
          31 39 2 1 2.</_></rects>
      <tilted>0</tilted></_>
    <_>
      <rects>
        <_>
          30 4 3 21 -1.</_>
        <_>
          31 4 1 21 3.</_></rects>
      <tilted>0</tilted></_>
    <_>
      <rects>
        <_>
          31 0 4 1 -1.</_>
        <_>
          33 0 2 1 2.</_></rects>
      <tilted>0</tilted></_>
    <_>
      <rects>
        <_>
          31 13 3 24 -1.</_>
        <_>
          32 13 1 24 3.</_></rects>
      <tilted>0</tilted></_>
    <_>
      <rects>
        <_>
          31 14 3 22 -1.</_>
        <_>
          32 14 1 22 3.</_></rects>
      <tilted>0</tilted></_>
    <_>
      <rects>
        <_>
          31 25 8 14 -1.</_>
        <_>
          35 25 4 14 2.</_></rects>
      <tilted>0</tilted></_>
    <_>
      <rects>
        <_>
          31 28 7 3 -1.</_>
        <_>
          31 29 7 1 3.</_></rects>
      <tilted>0</tilted></_>
    <_>
      <rects>
        <_>
          33 8 6 22 -1.</_>
        <_>
          35 8 2 22 3.</_></rects>
      <tilted>0</tilted></_>
    <_>
      <rects>
        <_>
          33 19 5 3 -1.</_>
        <_>
          33 20 5 1 3.</_></rects>
      <tilted>0</tilted></_>
    <_>
      <rects>
        <_>
          33 26 6 11 -1.</_>
        <_>
          36 26 3 11 2.</_></rects>
      <tilted>0</tilted></_>
    <_>
      <rects>
        <_>
          33 38 6 2 -1.</_>
        <_>
          36 38 3 2 2.</_></rects>
      <tilted>0</tilted></_>
    <_>
      <rects>
        <_>
          34 13 2 26 -1.</_>
        <_>
          34 13 1 13 2.</_>
        <_>
          35 26 1 13 2.</_></rects>
      <tilted>0</tilted></_>
    <_>
      <rects>
        <_>
          36 8 4 28 -1.</_>
        <_>
          38 8 2 28 2.</_></rects>
      <tilted>0</tilted></_>
    <_>
      <rects>
        <_>
          38 7 2 14 -1.</_>
        <_>
          38 14 2 7 2.</_></rects>
      <tilted>0</tilted></_>
    <_>
      <rects>
        <_>
          38 8 2 19 -1.</_>
        <_>
          39 8 1 19 2.</_></rects>
      <tilted>0</tilted></_>
    <_>
      <rects>
        <_>
          38 16 2 15 -1.</_>
        <_>
          39 16 1 15 2.</_></rects>
      <tilted>0</tilted></_></features></cascade>
</opencv_storage>
