<?xml version="1.0"?>
<opencv_storage>
<!-- Created using Computer Vision System Toolbox(tm) for MATLAB(R) -->
<!-- Version 8.1.0.604 (R2013a) -->
<!-- Compatible with OpenCV 2.4 -->
<cascade>
  <stageType>BOOST</stageType>
  <featureType>HAAR</featureType>
  <height>34</height>
  <width>32</width>
  <stageParams>
    <boostType>GAB</boostType>
    <minHitRate>9.9500000476837158e-01</minHitRate>
    <maxFalseAlarm>5.0000000000000000e-01</maxFalseAlarm>
    <weightTrimRate>9.4999999999999996e-01</weightTrimRate>
    <maxDepth>1</maxDepth>
    <maxWeakCount>100</maxWeakCount></stageParams>
  <featureParams>
    <maxCatCount>0</maxCatCount>
    <featSize>1</featSize>
    <mode>BASIC</mode></featureParams>
  <stageNum>21</stageNum>
  <stages>
    <!-- stage 0 -->
    <_>
      <maxWeakCount>2</maxWeakCount>
      <stageThreshold>-1.6984157264232635e-01</stageThreshold>
      <weakClassifiers>
        <_>
          <internalNodes>
            0 -1 15 3.4565452486276627e-02</internalNodes>
          <leafValues>
            -9.0909093618392944e-01 7.6811593770980835e-01</leafValues></_>
        <_>
          <internalNodes>
            0 -1 26 1.1035434436053038e-03</internalNodes>
          <leafValues>
            -8.3612108230590820e-01 7.3924934864044189e-01</leafValues></_></weakClassifiers></_>
    <!-- stage 1 -->
    <_>
      <maxWeakCount>3</maxWeakCount>
      <stageThreshold>-8.4042197465896606e-01</stageThreshold>
      <weakClassifiers>
        <_>
          <internalNodes>
            0 -1 61 5.0316803157329559e-02</internalNodes>
          <leafValues>
            -8.4057968854904175e-01 7.7777779102325439e-01</leafValues></_>
        <_>
          <internalNodes>
            0 -1 21 7.5385883450508118e-02</internalNodes>
          <leafValues>
            -7.9629892110824585e-01 6.5986591577529907e-01</leafValues></_>
        <_>
          <internalNodes>
            0 -1 40 -1.9834380596876144e-02</internalNodes>
          <leafValues>
            8.4210497140884399e-01 -6.5970820188522339e-01</leafValues></_></weakClassifiers></_>
    <!-- stage 2 -->
    <_>
      <maxWeakCount>3</maxWeakCount>
      <stageThreshold>-9.6757024526596069e-01</stageThreshold>
      <weakClassifiers>
        <_>
          <internalNodes>
            0 -1 37 2.5165377184748650e-02</internalNodes>
          <leafValues>
            -7.8417265415191650e-01 6.7741936445236206e-01</leafValues></_>
        <_>
          <internalNodes>
            0 -1 64 3.7524580955505371e-02</internalNodes>
          <leafValues>
            -7.2686356306076050e-01 7.5160801410675049e-01</leafValues></_>
        <_>
          <internalNodes>
            0 -1 50 -1.0805617086589336e-02</internalNodes>
          <leafValues>
            5.4346597194671631e-01 -7.8472715616226196e-01</leafValues></_></weakClassifiers></_>
    <!-- stage 3 -->
    <_>
      <maxWeakCount>5</maxWeakCount>
      <stageThreshold>-6.2325692176818848e-01</stageThreshold>
      <weakClassifiers>
        <_>
          <internalNodes>
            0 -1 1 1.1125150322914124e-01</internalNodes>
          <leafValues>
            -7.4285715818405151e-01 6.0655736923217773e-01</leafValues></_>
        <_>
          <internalNodes>
            0 -1 28 9.8719492554664612e-02</internalNodes>
          <leafValues>
            -5.5494719743728638e-01 7.8361427783966064e-01</leafValues></_>
        <_>
          <internalNodes>
            0 -1 65 -8.4127448499202728e-03</internalNodes>
          <leafValues>
            4.3098214268684387e-01 -8.7335777282714844e-01</leafValues></_>
        <_>
          <internalNodes>
            0 -1 46 1.0594239458441734e-02</internalNodes>
          <leafValues>
            -5.3761023283004761e-01 6.5405541658401489e-01</leafValues></_>
        <_>
          <internalNodes>
            0 -1 18 -5.4208129644393921e-02</internalNodes>
          <leafValues>
            8.0480086803436279e-01 -4.1049012541770935e-01</leafValues></_></weakClassifiers></_>
    <!-- stage 4 -->
    <_>
      <maxWeakCount>4</maxWeakCount>
      <stageThreshold>-6.6655927896499634e-01</stageThreshold>
      <weakClassifiers>
        <_>
          <internalNodes>
            0 -1 60 5.3310487419366837e-02</internalNodes>
          <leafValues>
            -6.7142856121063232e-01 4.4262295961380005e-01</leafValues></_>
        <_>
          <internalNodes>
            0 -1 9 -6.3184862956404686e-03</internalNodes>
          <leafValues>
            3.8549831509590149e-01 -7.1377688646316528e-01</leafValues></_>
        <_>
          <internalNodes>
            0 -1 24 5.4857008159160614e-02</internalNodes>
          <leafValues>
            -6.9917023181915283e-01 3.7721288204193115e-01</leafValues></_>
        <_>
          <internalNodes>
            0 -1 48 -2.5500799529254436e-03</internalNodes>
          <leafValues>
            -9.7800326347351074e-01 3.4143328666687012e-01</leafValues></_></weakClassifiers></_>
    <!-- stage 5 -->
    <_>
      <maxWeakCount>4</maxWeakCount>
      <stageThreshold>-8.3657044172286987e-01</stageThreshold>
      <weakClassifiers>
        <_>
          <internalNodes>
            0 -1 41 2.1707555279135704e-03</internalNodes>
          <leafValues>
            -5.5952382087707520e-01 8.1818181276321411e-01</leafValues></_>
        <_>
          <internalNodes>
            0 -1 49 1.1540956329554319e-03</internalNodes>
          <leafValues>
            -4.5375159382820129e-01 8.6815357208251953e-01</leafValues></_>
        <_>
          <internalNodes>
            0 -1 10 -1.5230571989377495e-05</internalNodes>
          <leafValues>
            5.2035021781921387e-01 -5.6549310684204102e-01</leafValues></_>
        <_>
          <internalNodes>
            0 -1 19 -1.9489875063300133e-02</internalNodes>
          <leafValues>
            8.5178607702255249e-01 -3.4364527463912964e-01</leafValues></_></weakClassifiers></_>
    <!-- stage 6 -->
    <_>
      <maxWeakCount>4</maxWeakCount>
      <stageThreshold>-9.6459794044494629e-01</stageThreshold>
      <weakClassifiers>
        <_>
          <internalNodes>
            0 -1 70 -1.0799948126077652e-02</internalNodes>
          <leafValues>
            7.7142858505249023e-01 -5.6626504659652710e-01</leafValues></_>
        <_>
          <internalNodes>
            0 -1 39 5.9540830552577972e-02</internalNodes>
          <leafValues>
            -4.4645205140113831e-01 6.9086962938308716e-01</leafValues></_>
        <_>
          <internalNodes>
            0 -1 62 -8.5113342720433138e-06</internalNodes>
          <leafValues>
            6.1010980606079102e-01 -4.8499140143394470e-01</leafValues></_>
        <_>
          <internalNodes>
            0 -1 73 9.4890674517955631e-06</internalNodes>
          <leafValues>
            -5.6199067831039429e-01 5.8139598369598389e-01</leafValues></_></weakClassifiers></_>
    <!-- stage 7 -->
    <_>
      <maxWeakCount>4</maxWeakCount>
      <stageThreshold>-8.6401104927062988e-01</stageThreshold>
      <weakClassifiers>
        <_>
          <internalNodes>
            0 -1 51 3.7253727205097675e-03</internalNodes>
          <leafValues>
            -6.1006289720535278e-01 7.1428573131561279e-01</leafValues></_>
        <_>
          <internalNodes>
            0 -1 67 -5.7392287999391556e-03</internalNodes>
          <leafValues>
            6.5367150306701660e-01 -5.0428426265716553e-01</leafValues></_>
        <_>
          <internalNodes>
            0 -1 20 3.5326271317899227e-03</internalNodes>
          <leafValues>
            -4.3559291958808899e-01 8.9525514841079712e-01</leafValues></_>
        <_>
          <internalNodes>
            0 -1 23 8.5793121252208948e-04</internalNodes>
          <leafValues>
            -4.4043204188346863e-01 6.8592900037765503e-01</leafValues></_></weakClassifiers></_>
    <!-- stage 8 -->
    <_>
      <maxWeakCount>4</maxWeakCount>
      <stageThreshold>-2.0789803564548492e-01</stageThreshold>
      <weakClassifiers>
        <_>
          <internalNodes>
            0 -1 16 4.4816057197749615e-03</internalNodes>
          <leafValues>
            -5.3757226467132568e-01 9.2857140302658081e-01</leafValues></_>
        <_>
          <internalNodes>
            0 -1 3 1.9018710008822381e-04</internalNodes>
          <leafValues>
            -8.4524780511856079e-01 4.0818750858306885e-01</leafValues></_>
        <_>
          <internalNodes>
            0 -1 14 -7.6440358534455299e-03</internalNodes>
          <leafValues>
            4.9579894542694092e-01 -6.9439643621444702e-01</leafValues></_>
        <_>
          <internalNodes>
            0 -1 66 5.4423674009740353e-04</internalNodes>
          <leafValues>
            -5.1308602094650269e-01 6.7912310361862183e-01</leafValues></_></weakClassifiers></_>
    <!-- stage 9 -->
    <_>
      <maxWeakCount>4</maxWeakCount>
      <stageThreshold>-4.3466076254844666e-01</stageThreshold>
      <weakClassifiers>
        <_>
          <internalNodes>
            0 -1 13 1.0573016852140427e-01</internalNodes>
          <leafValues>
            -7.5221240520477295e-01 2.0454545319080353e-01</leafValues></_>
        <_>
          <internalNodes>
            0 -1 9 -1.2409621849656105e-02</internalNodes>
          <leafValues>
            5.1897048950195313e-01 -5.4385757446289063e-01</leafValues></_>
        <_>
          <internalNodes>
            0 -1 25 6.2891915440559387e-02</internalNodes>
          <leafValues>
            -5.5275976657867432e-01 5.5319797992706299e-01</leafValues></_>
        <_>
          <internalNodes>
            0 -1 69 7.9892162466421723e-04</internalNodes>
          <leafValues>
            -6.0541695356369019e-01 4.9252307415008545e-01</leafValues></_></weakClassifiers></_>
    <!-- stage 10 -->
    <_>
      <maxWeakCount>4</maxWeakCount>
      <stageThreshold>-7.5290346145629883e-01</stageThreshold>
      <weakClassifiers>
        <_>
          <internalNodes>
            0 -1 30 1.0467288643121719e-01</internalNodes>
          <leafValues>
            -6.7883211374282837e-01 4.0625000000000000e-01</leafValues></_>
        <_>
          <internalNodes>
            0 -1 38 -8.7485183030366898e-05</internalNodes>
          <leafValues>
            -9.3904376029968262e-01 2.3648463189601898e-01</leafValues></_>
        <_>
          <internalNodes>
            0 -1 53 3.7929003592580557e-03</internalNodes>
          <leafValues>
            -5.1778000593185425e-01 5.8828932046890259e-01</leafValues></_>
        <_>
          <internalNodes>
            0 -1 56 -1.0703942098189145e-04</internalNodes>
          <leafValues>
            -8.7785804271697998e-01 3.7902656197547913e-01</leafValues></_></weakClassifiers></_>
    <!-- stage 11 -->
    <_>
      <maxWeakCount>4</maxWeakCount>
      <stageThreshold>-8.5778814554214478e-01</stageThreshold>
      <weakClassifiers>
        <_>
          <internalNodes>
            0 -1 22 1.5621180646121502e-02</internalNodes>
          <leafValues>
            -5.6790125370025635e-01 6.4102566242218018e-01</leafValues></_>
        <_>
          <internalNodes>
            0 -1 2 2.3815371096134186e-03</internalNodes>
          <leafValues>
            3.6751908063888550e-01 -7.7201676368713379e-01</leafValues></_>
        <_>
          <internalNodes>
            0 -1 54 -2.8657980146817863e-04</internalNodes>
          <leafValues>
            -9.3506836891174316e-01 2.7764165401458740e-01</leafValues></_>
        <_>
          <internalNodes>
            0 -1 8 -1.1297522578388453e-03</internalNodes>
          <leafValues>
            -8.8293880224227905e-01 2.7766236662864685e-01</leafValues></_></weakClassifiers></_>
    <!-- stage 12 -->
    <_>
      <maxWeakCount>4</maxWeakCount>
      <stageThreshold>-4.0369832515716553e-01</stageThreshold>
      <weakClassifiers>
        <_>
          <internalNodes>
            0 -1 36 -4.0055653080344200e-03</internalNodes>
          <leafValues>
            7.0588237047195435e-01 -5.4491019248962402e-01</leafValues></_>
        <_>
          <internalNodes>
            0 -1 4 4.3306354200467467e-04</internalNodes>
          <leafValues>
            2.8201836347579956e-01 -8.7797927856445313e-01</leafValues></_>
        <_>
          <internalNodes>
            0 -1 7 8.2361570093780756e-04</internalNodes>
          <leafValues>
            2.1883335709571838e-01 -9.3613493442535400e-01</leafValues></_>
        <_>
          <internalNodes>
            0 -1 76 -1.6089707612991333e-02</internalNodes>
          <leafValues>
            8.2608425617218018e-01 -3.5963985323905945e-01</leafValues></_></weakClassifiers></_>
    <!-- stage 13 -->
    <_>
      <maxWeakCount>6</maxWeakCount>
      <stageThreshold>-7.5740301609039307e-01</stageThreshold>
      <weakClassifiers>
        <_>
          <internalNodes>
            0 -1 33 -2.1774820052087307e-03</internalNodes>
          <leafValues>
            7.5757575035095215e-01 -5.4761904478073120e-01</leafValues></_>
        <_>
          <internalNodes>
            0 -1 55 6.4783426932990551e-04</internalNodes>
          <leafValues>
            -3.8622635602951050e-01 6.6706979274749756e-01</leafValues></_>
        <_>
          <internalNodes>
            0 -1 72 7.8308889642357826e-03</internalNodes>
          <leafValues>
            -4.0311712026596069e-01 6.3713032007217407e-01</leafValues></_>
        <_>
          <internalNodes>
            0 -1 75 -1.1743071809178218e-05</internalNodes>
          <leafValues>
            3.5565191507339478e-01 -8.1902003288269043e-01</leafValues></_>
        <_>
          <internalNodes>
            0 -1 59 -4.7049842774868011e-02</internalNodes>
          <leafValues>
            9.4677668809890747e-01 -3.0245956778526306e-01</leafValues></_>
        <_>
          <internalNodes>
            0 -1 63 1.3379324227571487e-02</internalNodes>
          <leafValues>
            -5.2692896127700806e-01 6.5300351381301880e-01</leafValues></_></weakClassifiers></_>
    <!-- stage 14 -->
    <_>
      <maxWeakCount>4</maxWeakCount>
      <stageThreshold>-4.1027110815048218e-01</stageThreshold>
      <weakClassifiers>
        <_>
          <internalNodes>
            0 -1 6 4.2389240115880966e-03</internalNodes>
          <leafValues>
            -6.3200002908706665e-01 3.7500000000000000e-01</leafValues></_>
        <_>
          <internalNodes>
            0 -1 32 3.0964616686105728e-02</internalNodes>
          <leafValues>
            -5.2416032552719116e-01 5.6187510490417480e-01</leafValues></_>
        <_>
          <internalNodes>
            0 -1 44 4.5453209895640612e-04</internalNodes>
          <leafValues>
            3.2292982935905457e-01 -8.3328920602798462e-01</leafValues></_>
        <_>
          <internalNodes>
            0 -1 58 1.0533473687246442e-04</internalNodes>
          <leafValues>
            -4.8974871635437012e-01 5.7217842340469360e-01</leafValues></_></weakClassifiers></_>
    <!-- stage 15 -->
    <_>
      <maxWeakCount>4</maxWeakCount>
      <stageThreshold>-8.7939518690109253e-01</stageThreshold>
      <weakClassifiers>
        <_>
          <internalNodes>
            0 -1 43 -1.7465238925069571e-03</internalNodes>
          <leafValues>
            9.3333333730697632e-01 -3.2743361592292786e-01</leafValues></_>
        <_>
          <internalNodes>
            0 -1 74 -8.0384558532387018e-04</internalNodes>
          <leafValues>
            -8.6458146572113037e-01 3.9813700318336487e-01</leafValues></_>
        <_>
          <internalNodes>
            0 -1 42 3.5599851980805397e-03</internalNodes>
          <leafValues>
            -4.0517318248748779e-01 8.2564771175384521e-01</leafValues></_>
        <_>
          <internalNodes>
            0 -1 47 4.9687656573951244e-03</internalNodes>
          <leafValues>
            -5.4492539167404175e-01 6.1175262928009033e-01</leafValues></_></weakClassifiers></_>
    <!-- stage 16 -->
    <_>
      <maxWeakCount>5</maxWeakCount>
      <stageThreshold>-3.9187961816787720e-01</stageThreshold>
      <weakClassifiers>
        <_>
          <internalNodes>
            0 -1 34 5.6296288967132568e-03</internalNodes>
          <leafValues>
            -2.6582279801368713e-01 8.9999997615814209e-01</leafValues></_>
        <_>
          <internalNodes>
            0 -1 0 2.3667432833462954e-03</internalNodes>
          <leafValues>
            -4.5102390646934509e-01 7.5781887769699097e-01</leafValues></_>
        <_>
          <internalNodes>
            0 -1 68 -8.6781365098431706e-04</internalNodes>
          <leafValues>
            -9.3803960084915161e-01 4.1853532195091248e-01</leafValues></_>
        <_>
          <internalNodes>
            0 -1 71 7.9184107016772032e-04</internalNodes>
          <leafValues>
            -4.7095066308975220e-01 9.7228610515594482e-01</leafValues></_>
        <_>
          <internalNodes>
            0 -1 5 -3.2963039120659232e-04</internalNodes>
          <leafValues>
            -8.3146035671234131e-01 5.2958285808563232e-01</leafValues></_></weakClassifiers></_>
    <!-- stage 17 -->
    <_>
      <maxWeakCount>3</maxWeakCount>
      <stageThreshold>6.5706264972686768e-01</stageThreshold>
      <weakClassifiers>
        <_>
          <internalNodes>
            0 -1 29 -8.3745315670967102e-02</internalNodes>
          <leafValues>
            -1. 6.1445784568786621e-01</leafValues></_>
        <_>
          <internalNodes>
            0 -1 35 -5.1734980661422014e-04</internalNodes>
          <leafValues>
            -6.0013365745544434e-01 7.3264628648757935e-01</leafValues></_>
        <_>
          <internalNodes>
            0 -1 52 -3.7530891131609678e-04</internalNodes>
          <leafValues>
            -6.9004148244857788e-01 6.7917662858963013e-01</leafValues></_></weakClassifiers></_>
    <!-- stage 18 -->
    <_>
      <maxWeakCount>3</maxWeakCount>
      <stageThreshold>3.6579567193984985e-01</stageThreshold>
      <weakClassifiers>
        <_>
          <internalNodes>
            0 -1 11 4.2858708184212446e-04</internalNodes>
          <leafValues>
            6.4999997615814209e-01 -8.7500000000000000e-01</leafValues></_>
        <_>
          <internalNodes>
            0 -1 27 -2.8611300513148308e-04</internalNodes>
          <leafValues>
            -8.0061155557632446e-01 5.6570935249328613e-01</leafValues></_>
        <_>
          <internalNodes>
            0 -1 17 -7.2200996801257133e-03</internalNodes>
          <leafValues>
            6.7508631944656372e-01 -6.3078707456588745e-01</leafValues></_></weakClassifiers></_>
    <!-- stage 19 -->
    <_>
      <maxWeakCount>4</maxWeakCount>
      <stageThreshold>-2.0383508875966072e-02</stageThreshold>
      <weakClassifiers>
        <_>
          <internalNodes>
            0 -1 57 2.0235870033502579e-02</internalNodes>
          <leafValues>
            7.7777779102325439e-01 -6.2500000000000000e-01</leafValues></_>
        <_>
          <internalNodes>
            0 -1 78 -6.1322585679590702e-04</internalNodes>
          <leafValues>
            -7.4000322818756104e-01 6.8966728448867798e-01</leafValues></_>
        <_>
          <internalNodes>
            0 -1 45 4.4758133299183100e-05</internalNodes>
          <leafValues>
            -6.2343764305114746e-01 8.3767330646514893e-01</leafValues></_>
        <_>
          <internalNodes>
            0 -1 77 -2.0735141879413277e-04</internalNodes>
          <leafValues>
            -8.8223749399185181e-01 5.6527960300445557e-01</leafValues></_></weakClassifiers></_>
    <!-- stage 20 -->
    <_>
      <maxWeakCount>3</maxWeakCount>
      <stageThreshold>7.8431242704391479e-01</stageThreshold>
      <weakClassifiers>
        <_>
          <internalNodes>
            0 -1 12 -7.0229075849056244e-02</internalNodes>
          <leafValues>
            -1. 7.4025976657867432e-01</leafValues></_>
        <_>
          <internalNodes>
            0 -1 67 -1.7386088147759438e-03</internalNodes>
          <leafValues>
            9.4238209724426270e-01 -5.3380709886550903e-01</leafValues></_>
        <_>
          <internalNodes>
            0 -1 31 -1.0354642570018768e-01</internalNodes>
          <leafValues>
            -8.9832937717437744e-01 6.0291683673858643e-01</leafValues></_></weakClassifiers></_></stages>
  <features>
    <_>
      <rects>
        <_>
          0 0 12 1 -1.</_>
        <_>
          6 0 6 1 2.</_></rects>
      <tilted>0</tilted></_>
    <_>
      <rects>
        <_>
          0 7 15 18 -1.</_>
        <_>
          0 13 15 6 3.</_></rects>
      <tilted>0</tilted></_>
    <_>
      <rects>
        <_>
          0 9 1 8 -1.</_>
        <_>
          0 13 1 4 2.</_></rects>
      <tilted>0</tilted></_>
    <_>
      <rects>
        <_>
          0 13 3 6 -1.</_>
        <_>
          0 15 3 2 3.</_></rects>
      <tilted>0</tilted></_>
    <_>
      <rects>
        <_>
          0 15 2 3 -1.</_>
        <_>
          0 16 2 1 3.</_></rects>
      <tilted>0</tilted></_>
    <_>
      <rects>
        <_>
          0 15 5 3 -1.</_>
        <_>
          0 16 5 1 3.</_></rects>
      <tilted>0</tilted></_>
    <_>
      <rects>
        <_>
          0 26 9 4 -1.</_>
        <_>
          3 26 3 4 3.</_></rects>
      <tilted>0</tilted></_>
    <_>
      <rects>
        <_>
          0 28 5 3 -1.</_>
        <_>
          0 29 5 1 3.</_></rects>
      <tilted>0</tilted></_>
    <_>
      <rects>
        <_>
          1 0 3 26 -1.</_>
        <_>
          2 0 1 26 3.</_></rects>
      <tilted>0</tilted></_>
    <_>
      <rects>
        <_>
          1 0 8 12 -1.</_>
        <_>
          1 0 4 6 2.</_>
        <_>
          5 6 4 6 2.</_></rects>
      <tilted>0</tilted></_>
    <_>
      <rects>
        <_>
          1 19 1 2 -1.</_>
        <_>
          1 20 1 1 2.</_></rects>
      <tilted>0</tilted></_>
    <_>
      <rects>
        <_>
          1 20 4 3 -1.</_>
        <_>
          1 21 4 1 3.</_></rects>
      <tilted>0</tilted></_>
    <_>
      <rects>
        <_>
          1 23 30 7 -1.</_>
        <_>
          11 23 10 7 3.</_></rects>
      <tilted>0</tilted></_>
    <_>
      <rects>
        <_>
          2 0 30 13 -1.</_>
        <_>
          12 0 10 13 3.</_></rects>
      <tilted>0</tilted></_>
    <_>
      <rects>
        <_>
          2 4 22 6 -1.</_>
        <_>
          2 7 22 3 2.</_></rects>
      <tilted>0</tilted></_>
    <_>
      <rects>
        <_>
          2 9 14 15 -1.</_>
        <_>
          2 14 14 5 3.</_></rects>
      <tilted>0</tilted></_>
    <_>
      <rects>
        <_>
          2 26 20 2 -1.</_>
        <_>
          2 26 10 1 2.</_>
        <_>
          12 27 10 1 2.</_></rects>
      <tilted>0</tilted></_>
    <_>
      <rects>
        <_>
          3 2 12 11 -1.</_>
        <_>
          7 2 4 11 3.</_></rects>
      <tilted>0</tilted></_>
    <_>
      <rects>
        <_>
          3 2 15 12 -1.</_>
        <_>
          3 6 15 4 3.</_></rects>
      <tilted>0</tilted></_>
    <_>
      <rects>
        <_>
          3 6 9 6 -1.</_>
        <_>
          3 8 9 2 3.</_></rects>
      <tilted>0</tilted></_>
    <_>
      <rects>
        <_>
          3 7 14 2 -1.</_>
        <_>
          3 7 7 1 2.</_>
        <_>
          10 8 7 1 2.</_></rects>
      <tilted>0</tilted></_>
    <_>
      <rects>
        <_>
          3 7 10 21 -1.</_>
        <_>
          3 14 10 7 3.</_></rects>
      <tilted>0</tilted></_>
    <_>
      <rects>
        <_>
          3 8 14 2 -1.</_>
        <_>
          10 8 7 2 2.</_></rects>
      <tilted>0</tilted></_>
    <_>
      <rects>
        <_>
          3 28 8 4 -1.</_>
        <_>
          3 28 4 2 2.</_>
        <_>
          7 30 4 2 2.</_></rects>
      <tilted>0</tilted></_>
    <_>
      <rects>
        <_>
          4 1 27 16 -1.</_>
        <_>
          13 1 9 16 3.</_></rects>
      <tilted>0</tilted></_>
    <_>
      <rects>
        <_>
          4 3 5 27 -1.</_>
        <_>
          4 12 5 9 3.</_></rects>
      <tilted>0</tilted></_>
    <_>
      <rects>
        <_>
          4 10 2 4 -1.</_>
        <_>
          4 12 2 2 2.</_></rects>
      <tilted>0</tilted></_>
    <_>
      <rects>
        <_>
          4 28 2 3 -1.</_>
        <_>
          4 29 2 1 3.</_></rects>
      <tilted>0</tilted></_>
    <_>
      <rects>
        <_>
          5 0 21 15 -1.</_>
        <_>
          12 0 7 15 3.</_></rects>
      <tilted>0</tilted></_>
    <_>
      <rects>
        <_>
          5 7 22 22 -1.</_>
        <_>
          5 7 11 11 2.</_>
        <_>
          16 18 11 11 2.</_></rects>
      <tilted>0</tilted></_>
    <_>
      <rects>
        <_>
          6 1 21 14 -1.</_>
        <_>
          13 1 7 14 3.</_></rects>
      <tilted>0</tilted></_>
    <_>
      <rects>
        <_>
          6 4 11 30 -1.</_>
        <_>
          6 19 11 15 2.</_></rects>
      <tilted>0</tilted></_>
    <_>
      <rects>
        <_>
          6 19 21 10 -1.</_>
        <_>
          13 19 7 10 3.</_></rects>
      <tilted>0</tilted></_>
    <_>
      <rects>
        <_>
          6 26 6 2 -1.</_>
        <_>
          6 26 3 1 2.</_>
        <_>
          9 27 3 1 2.</_></rects>
      <tilted>0</tilted></_>
    <_>
      <rects>
        <_>
          7 21 8 6 -1.</_>
        <_>
          7 21 4 3 2.</_>
        <_>
          11 24 4 3 2.</_></rects>
      <tilted>0</tilted></_>
    <_>
      <rects>
        <_>
          7 22 8 4 -1.</_>
        <_>
          7 22 4 2 2.</_>
        <_>
          11 24 4 2 2.</_></rects>
      <tilted>0</tilted></_>
    <_>
      <rects>
        <_>
          7 23 4 6 -1.</_>
        <_>
          7 23 2 3 2.</_>
        <_>
          9 26 2 3 2.</_></rects>
      <tilted>0</tilted></_>
    <_>
      <rects>
        <_>
          8 3 15 8 -1.</_>
        <_>
          13 3 5 8 3.</_></rects>
      <tilted>0</tilted></_>
    <_>
      <rects>
        <_>
          9 0 2 1 -1.</_>
        <_>
          10 0 1 1 2.</_></rects>
      <tilted>0</tilted></_>
    <_>
      <rects>
        <_>
          9 1 15 11 -1.</_>
        <_>
          14 1 5 11 3.</_></rects>
      <tilted>0</tilted></_>
    <_>
      <rects>
        <_>
          9 4 14 9 -1.</_>
        <_>
          9 7 14 3 3.</_></rects>
      <tilted>0</tilted></_>
    <_>
      <rects>
        <_>
          10 25 3 3 -1.</_>
        <_>
          10 26 3 1 3.</_></rects>
      <tilted>0</tilted></_>
    <_>
      <rects>
        <_>
          10 25 5 3 -1.</_>
        <_>
          10 26 5 1 3.</_></rects>
      <tilted>0</tilted></_>
    <_>
      <rects>
        <_>
          11 25 4 3 -1.</_>
        <_>
          11 26 4 1 3.</_></rects>
      <tilted>0</tilted></_>
    <_>
      <rects>
        <_>
          12 0 6 2 -1.</_>
        <_>
          12 0 3 1 2.</_>
        <_>
          15 1 3 1 2.</_></rects>
      <tilted>0</tilted></_>
    <_>
      <rects>
        <_>
          12 1 2 5 -1.</_>
        <_>
          13 1 1 5 2.</_></rects>
      <tilted>0</tilted></_>
    <_>
      <rects>
        <_>
          12 1 17 6 -1.</_>
        <_>
          12 3 17 2 3.</_></rects>
      <tilted>0</tilted></_>
    <_>
      <rects>
        <_>
          12 3 4 14 -1.</_>
        <_>
          14 3 2 14 2.</_></rects>
      <tilted>0</tilted></_>
    <_>
      <rects>
        <_>
          12 13 11 6 -1.</_>
        <_>
          12 15 11 2 3.</_></rects>
      <tilted>0</tilted></_>
    <_>
      <rects>
        <_>
          12 27 2 3 -1.</_>
        <_>
          12 28 2 1 3.</_></rects>
      <tilted>0</tilted></_>
    <_>
      <rects>
        <_>
          13 1 15 8 -1.</_>
        <_>
          13 5 15 4 2.</_></rects>
      <tilted>0</tilted></_>
    <_>
      <rects>
        <_>
          13 27 13 3 -1.</_>
        <_>
          13 28 13 1 3.</_></rects>
      <tilted>0</tilted></_>
    <_>
      <rects>
        <_>
          14 0 18 1 -1.</_>
        <_>
          20 0 6 1 3.</_></rects>
      <tilted>0</tilted></_>
    <_>
      <rects>
        <_>
          14 31 18 1 -1.</_>
        <_>
          20 31 6 1 3.</_></rects>
      <tilted>0</tilted></_>
    <_>
      <rects>
        <_>
          15 0 2 3 -1.</_>
        <_>
          16 0 1 3 2.</_></rects>
      <tilted>0</tilted></_>
    <_>
      <rects>
        <_>
          16 28 2 3 -1.</_>
        <_>
          16 29 2 1 3.</_></rects>
      <tilted>0</tilted></_>
    <_>
      <rects>
        <_>
          17 0 3 1 -1.</_>
        <_>
          18 0 1 1 3.</_></rects>
      <tilted>0</tilted></_>
    <_>
      <rects>
        <_>
          17 9 2 18 -1.</_>
        <_>
          17 15 2 6 3.</_></rects>
      <tilted>0</tilted></_>
    <_>
      <rects>
        <_>
          18 24 2 3 -1.</_>
        <_>
          19 24 1 3 2.</_></rects>
      <tilted>0</tilted></_>
    <_>
      <rects>
        <_>
          20 6 12 22 -1.</_>
        <_>
          20 6 6 11 2.</_>
        <_>
          26 17 6 11 2.</_></rects>
      <tilted>0</tilted></_>
    <_>
      <rects>
        <_>
          20 6 10 12 -1.</_>
        <_>
          20 12 10 6 2.</_></rects>
      <tilted>0</tilted></_>
    <_>
      <rects>
        <_>
          21 7 11 18 -1.</_>
        <_>
          21 13 11 6 3.</_></rects>
      <tilted>0</tilted></_>
    <_>
      <rects>
        <_>
          21 29 2 2 -1.</_>
        <_>
          21 29 1 1 2.</_>
        <_>
          22 30 1 1 2.</_></rects>
      <tilted>0</tilted></_>
    <_>
      <rects>
        <_>
          22 11 10 9 -1.</_>
        <_>
          22 14 10 3 3.</_></rects>
      <tilted>0</tilted></_>
    <_>
      <rects>
        <_>
          23 8 8 18 -1.</_>
        <_>
          23 14 8 6 3.</_></rects>
      <tilted>0</tilted></_>
    <_>
      <rects>
        <_>
          23 13 7 18 -1.</_>
        <_>
          23 22 7 9 2.</_></rects>
      <tilted>0</tilted></_>
    <_>
      <rects>
        <_>
          23 14 4 4 -1.</_>
        <_>
          23 14 2 2 2.</_>
        <_>
          25 16 2 2 2.</_></rects>
      <tilted>0</tilted></_>
    <_>
      <rects>
        <_>
          23 25 8 6 -1.</_>
        <_>
          23 25 4 3 2.</_>
        <_>
          27 28 4 3 2.</_></rects>
      <tilted>0</tilted></_>
    <_>
      <rects>
        <_>
          23 29 8 3 -1.</_>
        <_>
          23 30 8 1 3.</_></rects>
      <tilted>0</tilted></_>
    <_>
      <rects>
        <_>
          24 1 8 6 -1.</_>
        <_>
          24 3 8 2 3.</_></rects>
      <tilted>0</tilted></_>
    <_>
      <rects>
        <_>
          24 24 8 6 -1.</_>
        <_>
          24 24 4 3 2.</_>
        <_>
          28 27 4 3 2.</_></rects>
      <tilted>0</tilted></_>
    <_>
      <rects>
        <_>
          25 7 1 3 -1.</_>
        <_>
          25 8 1 1 3.</_></rects>
      <tilted>0</tilted></_>
    <_>
      <rects>
        <_>
          26 6 6 24 -1.</_>
        <_>
          28 6 2 24 3.</_></rects>
      <tilted>0</tilted></_>
    <_>
      <rects>
        <_>
          26 18 2 2 -1.</_>
        <_>
          26 18 1 1 2.</_>
        <_>
          27 19 1 1 2.</_></rects>
      <tilted>0</tilted></_>
    <_>
      <rects>
        <_>
          26 28 6 3 -1.</_>
        <_>
          26 29 6 1 3.</_></rects>
      <tilted>0</tilted></_>
    <_>
      <rects>
        <_>
          27 19 4 2 -1.</_>
        <_>
          27 20 4 1 2.</_></rects>
      <tilted>0</tilted></_>
    <_>
      <rects>
        <_>
          28 13 4 21 -1.</_>
        <_>
          30 13 2 21 2.</_></rects>
      <tilted>0</tilted></_>
    <_>
      <rects>
        <_>
          29 13 1 3 -1.</_>
        <_>
          29 14 1 1 3.</_></rects>
      <tilted>0</tilted></_>
    <_>
      <rects>
        <_>
          31 16 1 6 -1.</_>
        <_>
          31 18 1 2 3.</_></rects>
      <tilted>0</tilted></_></features></cascade>
</opencv_storage>
