<?xml version="1.0"?>
<opencv_storage>
<!-- Created using Computer Vision System Toolbox(tm) for MATLAB(R) -->
<!-- Version 8.1.0.604 (R2013a) -->
<!-- Compatible with OpenCV 2.4 -->
<cascade>
  <stageType>BOOST</stageType>
  <featureType>HOG</featureType>
  <height>40</height>
  <width>40</width>
  <stageParams>
    <boostType>GAB</boostType>
    <minHitRate>9.9500000476837158e-01</minHitRate>
    <maxFalseAlarm>5.0000000000000000e-01</maxFalseAlarm>
    <weightTrimRate>9.4999999999999996e-01</weightTrimRate>
    <maxDepth>1</maxDepth>
    <maxWeakCount>100</maxWeakCount></stageParams>
  <featureParams>
    <maxCatCount>0</maxCatCount>
    <featSize>36</featSize></featureParams>
  <stageNum>12</stageNum>
  <stages>
    <!-- stage 0 -->
    <_>
      <maxWeakCount>2</maxWeakCount>
      <stageThreshold>-6.4210258424282074e-02</stageThreshold>
      <weakClassifiers>
        <_>
          <internalNodes>
            0 -1 14 2.5157745927572250e-02</internalNodes>
          <leafValues>
            -9.4285714626312256e-01 7.8947371244430542e-01</leafValues></_>
        <_>
          <internalNodes>
            0 -1 10 4.9937136471271515e-02</internalNodes>
          <leafValues>
            -8.5368394851684570e-01 9.1635954380035400e-01</leafValues></_></weakClassifiers></_>
    <!-- stage 1 -->
    <_>
      <maxWeakCount>2</maxWeakCount>
      <stageThreshold>-9.3240663409233093e-02</stageThreshold>
      <weakClassifiers>
        <_>
          <internalNodes>
            0 -1 5 2.6163049042224884e-03</internalNodes>
          <leafValues>
            7.7777779102325439e-01 -8.8888889551162720e-01</leafValues></_>
        <_>
          <internalNodes>
            0 -1 19 2.1119143813848495e-02</internalNodes>
          <leafValues>
            -8.5080361366271973e-01 7.9564821720123291e-01</leafValues></_></weakClassifiers></_>
    <!-- stage 2 -->
    <_>
      <maxWeakCount>1</maxWeakCount>
      <stageThreshold>1.</stageThreshold>
      <weakClassifiers>
        <_>
          <internalNodes>
            0 -1 2 6.4461966976523399e-03</internalNodes>
          <leafValues>
            1. -1.</leafValues></_></weakClassifiers></_>
    <!-- stage 3 -->
    <_>
      <maxWeakCount>1</maxWeakCount>
      <stageThreshold>8.9473682641983032e-01</stageThreshold>
      <weakClassifiers>
        <_>
          <internalNodes>
            0 -1 4 5.9768799692392349e-03</internalNodes>
          <leafValues>
            8.9473682641983032e-01 -1.</leafValues></_></weakClassifiers></_>
    <!-- stage 4 -->
    <_>
      <maxWeakCount>2</maxWeakCount>
      <stageThreshold>-2.6123535633087158e-01</stageThreshold>
      <weakClassifiers>
        <_>
          <internalNodes>
            0 -1 1 1.8489109352231026e-03</internalNodes>
          <leafValues>
            7.8947371244430542e-01 -9.4285714626312256e-01</leafValues></_>
        <_>
          <internalNodes>
            0 -1 6 3.1222556717693806e-03</internalNodes>
          <leafValues>
            6.8162178993225098e-01 -1.</leafValues></_></weakClassifiers></_>
    <!-- stage 5 -->
    <_>
      <maxWeakCount>2</maxWeakCount>
      <stageThreshold>6.3189789652824402e-02</stageThreshold>
      <weakClassifiers>
        <_>
          <internalNodes>
            0 -1 11 4.2269539088010788e-02</internalNodes>
          <leafValues>
            -8.3783781528472900e-01 7.6470589637756348e-01</leafValues></_>
        <_>
          <internalNodes>
            0 -1 3 6.7051485180854797e-02</internalNodes>
          <leafValues>
            -7.0151609182357788e-01 9.2197918891906738e-01</leafValues></_></weakClassifiers></_>
    <!-- stage 6 -->
    <_>
      <maxWeakCount>2</maxWeakCount>
      <stageThreshold>6.2923125922679901e-02</stageThreshold>
      <weakClassifiers>
        <_>
          <internalNodes>
            0 -1 17 2.7388866990804672e-02</internalNodes>
          <leafValues>
            -8.0000001192092896e-01 1.</leafValues></_>
        <_>
          <internalNodes>
            0 -1 16 2.7899093925952911e-02</internalNodes>
          <leafValues>
            -7.8507423400878906e-01 8.6292314529418945e-01</leafValues></_></weakClassifiers></_>
    <!-- stage 7 -->
    <_>
      <maxWeakCount>1</maxWeakCount>
      <stageThreshold>2.8571429848670959e-01</stageThreshold>
      <weakClassifiers>
        <_>
          <internalNodes>
            0 -1 18 1.7890976741909981e-02</internalNodes>
          <leafValues>
            2.8571429848670959e-01 -1.</leafValues></_></weakClassifiers></_>
    <!-- stage 8 -->
    <_>
      <maxWeakCount>2</maxWeakCount>
      <stageThreshold>-8.6058504879474640e-02</stageThreshold>
      <weakClassifiers>
        <_>
          <internalNodes>
            0 -1 15 1.9236233085393906e-02</internalNodes>
          <leafValues>
            -7.6470589637756348e-01 7.5000000000000000e-01</leafValues></_>
        <_>
          <internalNodes>
            0 -1 12 1.9448455423116684e-02</internalNodes>
          <leafValues>
            -8.3605849742889404e-01 7.1118968725204468e-01</leafValues></_></weakClassifiers></_>
    <!-- stage 9 -->
    <_>
      <maxWeakCount>2</maxWeakCount>
      <stageThreshold>3.4091934561729431e-01</stageThreshold>
      <weakClassifiers>
        <_>
          <internalNodes>
            0 -1 8 4.6925740316510201e-03</internalNodes>
          <leafValues>
            8.7500000000000000e-01 -5.3846156597137451e-01</leafValues></_>
        <_>
          <internalNodes>
            0 -1 0 1.9351661205291748e-02</internalNodes>
          <leafValues>
            -5.3408062458038330e-01 1.</leafValues></_></weakClassifiers></_>
    <!-- stage 10 -->
    <_>
      <maxWeakCount>2</maxWeakCount>
      <stageThreshold>2.5068745017051697e-01</stageThreshold>
      <weakClassifiers>
        <_>
          <internalNodes>
            0 -1 9 3.4660226665437222e-03</internalNodes>
          <leafValues>
            -6.6666668653488159e-01 1.</leafValues></_>
        <_>
          <internalNodes>
            0 -1 13 2.4358063936233521e-02</internalNodes>
          <leafValues>
            -7.4931257963180542e-01 1.</leafValues></_></weakClassifiers></_>
    <!-- stage 11 -->
    <_>
      <maxWeakCount>1</maxWeakCount>
      <stageThreshold>1.</stageThreshold>
      <weakClassifiers>
        <_>
          <internalNodes>
            0 -1 7 9.6567056607455015e-04</internalNodes>
          <leafValues>
            -1. 1.</leafValues></_></weakClassifiers></_></stages>
  <features>
    <_>
      <rect>
        4 0 8 8 5</rect></_>
    <_>
      <rect>
        4 0 8 8 12</rect></_>
    <_>
      <rect>
        4 4 8 8 1</rect></_>
    <_>
      <rect>
        4 4 8 8 6</rect></_>
    <_>
      <rect>
        4 4 8 8 16</rect></_>
    <_>
      <rect>
        4 4 8 8 17</rect></_>
    <_>
      <rect>
        8 0 8 8 14</rect></_>
    <_>
      <rect>
        8 16 8 8 34</rect></_>
    <_>
      <rect>
        8 24 8 8 27</rect></_>
    <_>
      <rect>
        12 24 8 8 9</rect></_>
    <_>
      <rect>
        16 24 8 8 15</rect></_>
    <_>
      <rect>
        20 4 8 8 19</rect></_>
    <_>
      <rect>
        16 4 8 16 27</rect></_>
    <_>
      <rect>
        20 0 8 16 24</rect></_>
    <_>
      <rect>
        24 8 8 16 24</rect></_>
    <_>
      <rect>
        8 24 16 8 12</rect></_>
    <_>
      <rect>
        8 24 16 8 29</rect></_>
    <_>
      <rect>
        4 4 16 16 11</rect></_>
    <_>
      <rect>
        4 8 16 16 22</rect></_>
    <_>
      <rect>
        8 4 16 16 9</rect></_></features></cascade>
</opencv_storage>
